digraph Tree {
node [shape=box] ;
0 [label="level <= 0.5\ngini = 0.473\nsamples = 891\nvalue = [549, 342]"] ;
1 [label="lang <= 1.5\ngini = 0.383\nsamples = 314\nvalue = [81, 233]"] ;
0 -> 1 [labeldistance=2.5, labelangle=45, headlabel="True"] ;
2 [label="lang <= 0.5\ngini = 0.1\nsamples = 170\nvalue = [9, 161]"] ;
1 -> 2 ;
3 [label="phd <= 1.5\ngini = 0.062\nsamples = 94\nvalue = [3, 91]"] ;
2 -> 3 ;
4 [label="tweets <= 0.5\ngini = 0.024\nsamples = 81\nvalue = [1, 80]"] ;
3 -> 4 ;
5 [label="phd <= 0.5\ngini = 0.044\nsamples = 44\nvalue = [1, 43]"] ;
4 -> 5 ;
6 [label="gini = 0.057\nsamples = 34\nvalue = [1, 33]"] ;
5 -> 6 ;
7 [label="gini = 0.0\nsamples = 10\nvalue = [0, 10]"] ;
5 -> 7 ;
8 [label="gini = 0.0\nsamples = 37\nvalue = [0, 37]"] ;
4 -> 8 ;
9 [label="tweets <= 0.5\ngini = 0.26\nsamples = 13\nvalue = [2, 11]"] ;
3 -> 9 ;
10 [label="gini = 0.0\nsamples = 5\nvalue = [0, 5]"] ;
9 -> 10 ;
11 [label="tweets <= 1.5\ngini = 0.375\nsamples = 8\nvalue = [2, 6]"] ;
9 -> 11 ;
12 [label="gini = 0.5\nsamples = 4\nvalue = [2, 2]"] ;
11 -> 12 ;
13 [label="gini = 0.0\nsamples = 4\nvalue = [0, 4]"] ;
11 -> 13 ;
14 [label="phd <= 0.5\ngini = 0.145\nsamples = 76\nvalue = [6, 70]"] ;
2 -> 14 ;
15 [label="tweets <= 0.5\ngini = 0.198\nsamples = 45\nvalue = [5, 40]"] ;
14 -> 15 ;
16 [label="gini = 0.17\nsamples = 32\nvalue = [3, 29]"] ;
15 -> 16 ;
17 [label="tweets <= 2.0\ngini = 0.26\nsamples = 13\nvalue = [2, 11]"] ;
15 -> 17 ;
18 [label="gini = 0.278\nsamples = 12\nvalue = [2, 10]"] ;
17 -> 18 ;
19 [label="gini = 0.0\nsamples = 1\nvalue = [0, 1]"] ;
17 -> 19 ;
20 [label="phd <= 1.5\ngini = 0.062\nsamples = 31\nvalue = [1, 30]"] ;
14 -> 20 ;
21 [label="tweets <= 0.5\ngini = 0.105\nsamples = 18\nvalue = [1, 17]"] ;
20 -> 21 ;
22 [label="gini = 0.0\nsamples = 7\nvalue = [0, 7]"] ;
21 -> 22 ;
23 [label="tweets <= 1.5\ngini = 0.165\nsamples = 11\nvalue = [1, 10]"] ;
21 -> 23 ;
24 [label="gini = 0.198\nsamples = 9\nvalue = [1, 8]"] ;
23 -> 24 ;
25 [label="gini = 0.0\nsamples = 2\nvalue = [0, 2]"] ;
23 -> 25 ;
26 [label="gini = 0.0\nsamples = 13\nvalue = [0, 13]"] ;
20 -> 26 ;
27 [label="tweets <= 2.5\ngini = 0.5\nsamples = 144\nvalue = [72, 72]"] ;
1 -> 27 ;
28 [label="phd <= 3.5\ngini = 0.495\nsamples = 126\nvalue = [57, 69]"] ;
27 -> 28 ;
29 [label="tweets <= 0.5\ngini = 0.49\nsamples = 119\nvalue = [51, 68]"] ;
28 -> 29 ;
30 [label="phd <= 2.5\ngini = 0.473\nsamples = 78\nvalue = [30, 48]"] ;
29 -> 30 ;
31 [label="phd <= 0.5\ngini = 0.476\nsamples = 77\nvalue = [30, 47]"] ;
30 -> 31 ;
32 [label="gini = 0.473\nsamples = 60\nvalue = [23, 37]"] ;
31 -> 32 ;
33 [label="phd <= 1.5\ngini = 0.484\nsamples = 17\nvalue = [7, 10]"] ;
31 -> 33 ;
34 [label="gini = 0.49\nsamples = 7\nvalue = [3, 4]"] ;
33 -> 34 ;
35 [label="gini = 0.48\nsamples = 10\nvalue = [4, 6]"] ;
33 -> 35 ;
36 [label="gini = 0.0\nsamples = 1\nvalue = [0, 1]"] ;
30 -> 36 ;
37 [label="phd <= 1.5\ngini = 0.5\nsamples = 41\nvalue = [21, 20]"] ;
29 -> 37 ;
38 [label="tweets <= 1.5\ngini = 0.497\nsamples = 37\nvalue = [17, 20]"] ;
37 -> 38 ;
39 [label="phd <= 0.5\ngini = 0.5\nsamples = 32\nvalue = [16, 16]"] ;
38 -> 39 ;
40 [label="gini = 0.5\nsamples = 22\nvalue = [11, 11]"] ;
39 -> 40 ;
41 [label="gini = 0.5\nsamples = 10\nvalue = [5, 5]"] ;
39 -> 41 ;
42 [label="phd <= 0.5\ngini = 0.32\nsamples = 5\nvalue = [1, 4]"] ;
38 -> 42 ;
43 [label="gini = 0.5\nsamples = 2\nvalue = [1, 1]"] ;
42 -> 43 ;
44 [label="gini = 0.0\nsamples = 3\nvalue = [0, 3]"] ;
42 -> 44 ;
45 [label="gini = 0.0\nsamples = 4\nvalue = [4, 0]"] ;
37 -> 45 ;
46 [label="tweets <= 0.5\ngini = 0.245\nsamples = 7\nvalue = [6, 1]"] ;
28 -> 46 ;
47 [label="gini = 0.0\nsamples = 3\nvalue = [3, 0]"] ;
46 -> 47 ;
48 [label="phd <= 4.5\ngini = 0.375\nsamples = 4\nvalue = [3, 1]"] ;
46 -> 48 ;
49 [label="gini = 0.0\nsamples = 1\nvalue = [1, 0]"] ;
48 -> 49 ;
50 [label="phd <= 5.5\ngini = 0.444\nsamples = 3\nvalue = [2, 1]"] ;
48 -> 50 ;
51 [label="gini = 0.5\nsamples = 2\nvalue = [1, 1]"] ;
50 -> 51 ;
52 [label="gini = 0.0\nsamples = 1\nvalue = [1, 0]"] ;
50 -> 52 ;
53 [label="phd <= 0.5\ngini = 0.278\nsamples = 18\nvalue = [15, 3]"] ;
27 -> 53 ;
54 [label="gini = 0.0\nsamples = 1\nvalue = [0, 1]"] ;
53 -> 54 ;
55 [label="tweets <= 3.5\ngini = 0.208\nsamples = 17\nvalue = [15, 2]"] ;
53 -> 55 ;
56 [label="gini = 0.0\nsamples = 7\nvalue = [7, 0]"] ;
55 -> 56 ;
57 [label="tweets <= 4.5\ngini = 0.32\nsamples = 10\nvalue = [8, 2]"] ;
55 -> 57 ;
58 [label="gini = 0.444\nsamples = 6\nvalue = [4, 2]"] ;
57 -> 58 ;
59 [label="gini = 0.0\nsamples = 4\nvalue = [4, 0]"] ;
57 -> 59 ;
60 [label="lang <= 0.5\ngini = 0.306\nsamples = 577\nvalue = [468, 109]"] ;
0 -> 60 [labeldistance=2.5, labelangle=-45, headlabel="False"] ;
61 [label="tweets <= 0.5\ngini = 0.466\nsamples = 122\nvalue = [77, 45]"] ;
60 -> 61 ;
62 [label="phd <= 1.5\ngini = 0.442\nsamples = 88\nvalue = [59, 29]"] ;
61 -> 62 ;
63 [label="phd <= 0.5\ngini = 0.436\nsamples = 84\nvalue = [57, 27]"] ;
62 -> 63 ;
64 [label="gini = 0.444\nsamples = 75\nvalue = [50, 25]"] ;
63 -> 64 ;
65 [label="gini = 0.346\nsamples = 9\nvalue = [7, 2]"] ;
63 -> 65 ;
66 [label="gini = 0.5\nsamples = 4\nvalue = [2, 2]"] ;
62 -> 66 ;
67 [label="tweets <= 2.5\ngini = 0.498\nsamples = 34\nvalue = [18, 16]"] ;
61 -> 67 ;
68 [label="phd <= 1.5\ngini = 0.5\nsamples = 33\nvalue = [17, 16]"] ;
67 -> 68 ;
69 [label="phd <= 0.5\ngini = 0.495\nsamples = 29\nvalue = [16, 13]"] ;
68 -> 69 ;
70 [label="tweets <= 1.5\ngini = 0.497\nsamples = 24\nvalue = [13, 11]"] ;
69 -> 70 ;
71 [label="gini = 0.496\nsamples = 22\nvalue = [12, 10]"] ;
70 -> 71 ;
72 [label="gini = 0.5\nsamples = 2\nvalue = [1, 1]"] ;
70 -> 72 ;
73 [label="gini = 0.48\nsamples = 5\nvalue = [3, 2]"] ;
69 -> 73 ;
74 [label="phd <= 3.0\ngini = 0.375\nsamples = 4\nvalue = [1, 3]"] ;
68 -> 74 ;
75 [label="gini = 0.0\nsamples = 3\nvalue = [0, 3]"] ;
74 -> 75 ;
76 [label="gini = 0.0\nsamples = 1\nvalue = [1, 0]"] ;
74 -> 76 ;
77 [label="gini = 0.0\nsamples = 1\nvalue = [1, 0]"] ;
67 -> 77 ;
78 [label="phd <= 0.5\ngini = 0.242\nsamples = 455\nvalue = [391, 64]"] ;
60 -> 78 ;
79 [label="lang <= 1.5\ngini = 0.202\nsamples = 385\nvalue = [341, 44]"] ;
78 -> 79 ;
80 [label="tweets <= 1.5\ngini = 0.164\nsamples = 89\nvalue = [81, 8]"] ;
79 -> 80 ;
81 [label="tweets <= 0.5\ngini = 0.169\nsamples = 86\nvalue = [78, 8]"] ;
80 -> 81 ;
82 [label="gini = 0.176\nsamples = 72\nvalue = [65, 7]"] ;
81 -> 82 ;
83 [label="gini = 0.133\nsamples = 14\nvalue = [13, 1]"] ;
81 -> 83 ;
84 [label="gini = 0.0\nsamples = 3\nvalue = [3, 0]"] ;
80 -> 84 ;
85 [label="tweets <= 0.5\ngini = 0.214\nsamples = 296\nvalue = [260, 36]"] ;
79 -> 85 ;
86 [label="gini = 0.213\nsamples = 264\nvalue = [232, 32]"] ;
85 -> 86 ;
87 [label="tweets <= 1.5\ngini = 0.219\nsamples = 32\nvalue = [28, 4]"] ;
85 -> 87 ;
88 [label="gini = 0.219\nsamples = 24\nvalue = [21, 3]"] ;
87 -> 88 ;
89 [label="gini = 0.219\nsamples = 8\nvalue = [7, 1]"] ;
87 -> 89 ;
90 [label="tweets <= 2.5\ngini = 0.408\nsamples = 70\nvalue = [50, 20]"] ;
78 -> 90 ;
91 [label="phd <= 2.5\ngini = 0.485\nsamples = 46\nvalue = [27, 19]"] ;
90 -> 91 ;
92 [label="tweets <= 0.5\ngini = 0.493\nsamples = 43\nvalue = [24, 19]"] ;
91 -> 92 ;
93 [label="phd <= 1.5\ngini = 0.5\nsamples = 10\nvalue = [5, 5]"] ;
92 -> 93 ;
94 [label="lang <= 1.5\ngini = 0.48\nsamples = 5\nvalue = [3, 2]"] ;
93 -> 94 ;
95 [label="gini = 0.0\nsamples = 1\nvalue = [1, 0]"] ;
94 -> 95 ;
96 [label="gini = 0.5\nsamples = 4\nvalue = [2, 2]"] ;
94 -> 96 ;
97 [label="lang <= 1.5\ngini = 0.48\nsamples = 5\nvalue = [2, 3]"] ;
93 -> 97 ;
98 [label="gini = 0.444\nsamples = 3\nvalue = [1, 2]"] ;
97 -> 98 ;
99 [label="gini = 0.5\nsamples = 2\nvalue = [1, 1]"] ;
97 -> 99 ;
100 [label="phd <= 1.5\ngini = 0.489\nsamples = 33\nvalue = [19, 14]"] ;
92 -> 100 ;
101 [label="lang <= 1.5\ngini = 0.497\nsamples = 28\nvalue = [15, 13]"] ;
100 -> 101 ;
102 [label="tweets <= 1.5\ngini = 0.497\nsamples = 13\nvalue = [6, 7]"] ;
101 -> 102 ;
103 [label="gini = 0.496\nsamples = 11\nvalue = [5, 6]"] ;
102 -> 103 ;
104 [label="gini = 0.5\nsamples = 2\nvalue = [1, 1]"] ;
102 -> 104 ;
105 [label="gini = 0.48\nsamples = 15\nvalue = [9, 6]"] ;
101 -> 105 ;
106 [label="lang <= 1.5\ngini = 0.32\nsamples = 5\nvalue = [4, 1]"] ;
100 -> 106 ;
107 [label="gini = 0.0\nsamples = 2\nvalue = [2, 0]"] ;
106 -> 107 ;
108 [label="gini = 0.444\nsamples = 3\nvalue = [2, 1]"] ;
106 -> 108 ;
109 [label="gini = 0.0\nsamples = 3\nvalue = [3, 0]"] ;
91 -> 109 ;
110 [label="phd <= 1.5\ngini = 0.08\nsamples = 24\nvalue = [23, 1]"] ;
90 -> 110 ;
111 [label="gini = 0.0\nsamples = 11\nvalue = [11, 0]"] ;
110 -> 111 ;
112 [label="tweets <= 4.5\ngini = 0.142\nsamples = 13\nvalue = [12, 1]"] ;
110 -> 112 ;
113 [label="tweets <= 3.5\ngini = 0.32\nsamples = 5\nvalue = [4, 1]"] ;
112 -> 113 ;
114 [label="gini = 0.0\nsamples = 2\nvalue = [2, 0]"] ;
113 -> 114 ;
115 [label="gini = 0.444\nsamples = 3\nvalue = [2, 1]"] ;
113 -> 115 ;
116 [label="gini = 0.0\nsamples = 8\nvalue = [8, 0]"] ;
112 -> 116 ;
}
